<?xml version="1.0"?>
<opencv_storage>
<stage2>
  <maxWeakCount>72</maxWeakCount>
  <stageThreshold>-1.1184303760528564e+00</stageThreshold>
  <weakClassifiers>
    <_>
      <internalNodes>
        0 -1 95948 -2.8089009225368500e-02</internalNodes>
      <leafValues>
        5.8557212352752686e-01 1.4465408399701118e-02</leafValues></_>
    <_>
      <internalNodes>
        0 -1 637 -1.5563740730285645e+00</internalNodes>
      <leafValues>
        -1.1006458103656769e-01 6.4631849527359009e-01</leafValues></_>
    <_>
      <internalNodes>
        0 -1 124583 -1.3067573308944702e-02</internalNodes>
      <leafValues>
        2.1131826937198639e-01 -2.6895636320114136e-01</leafValues></_>
    <_>
      <internalNodes>
        0 -1 117935 2.0288968458771706e-02</internalNodes>
      <leafValues>
        -1.1103545129299164e-01 7.0323890447616577e-01</leafValues></_>
    <_>
      <internalNodes>
        0 -1 117990 -3.0135570093989372e-02</internalNodes>
      <leafValues>
        7.3054254055023193e-01 -4.8182394355535507e-02</leafValues></_>
    <_>
      <internalNodes>
        0 -1 863 -4.4953951239585876e-01</internalNodes>
      <leafValues>
        -6.5155220031738281e-01 5.4699886590242386e-02</leafValues></_>
    <_>
      <internalNodes>
        0 -1 119029 -1.3148430734872818e-02</internalNodes>
      <leafValues>
        6.3738262653350830e-01 -7.0675194263458252e-02</leafValues></_>
    <_>
      <internalNodes>
        0 -1 111969 -4.7192834317684174e-02</internalNodes>
      <leafValues>
        6.7558985948562622e-01 -5.5031701922416687e-02</leafValues></_>
    <_>
      <internalNodes>
        0 -1 38840 -2.0972523838281631e-02</internalNodes>
      <leafValues>
        -2.8537413477897644e-01 1.2913727760314941e-01</leafValues></_>
    <_>
      <internalNodes>
        0 -1 155957 -3.0104422941803932e-02</internalNodes>
      <leafValues>
        -5.5362045764923096e-01 5.9213049709796906e-02</leafValues></_>
    <_>
      <internalNodes>
        0 -1 95691 1.7835143953561783e-02</internalNodes>
      <leafValues>
        -4.8260446637868881e-02 7.2260445356369019e-01</leafValues></_>
    <_>
      <internalNodes>
        0 -1 94833 -2.6665555313229561e-02</internalNodes>
      <leafValues>
        5.7846343517303467e-01 -5.2911926060914993e-02</leafValues></_>
    <_>
      <internalNodes>
        0 -1 125859 2.6629570871591568e-02</internalNodes>
      <leafValues>
        -6.1487305909395218e-02 4.9248999357223511e-01</leafValues></_>
    <_>
      <internalNodes>
        0 -1 481 -2.7882712893188000e-03</internalNodes>
      <leafValues>
        -3.2064929604530334e-01 9.4241626560688019e-02</leafValues></_>
    <_>
      <internalNodes>
        0 -1 808 2.6665229350328445e-02</internalNodes>
      <leafValues>
        5.5618692189455032e-02 -5.2926951646804810e-01</leafValues></_>
    <_>
      <internalNodes>
        0 -1 151872 2.6408452540636063e-03</internalNodes>
      <leafValues>
        6.3375964760780334e-02 -4.0425485372543335e-01</leafValues></_>
    <_>
      <internalNodes>
        0 -1 104123 2.0139131695032120e-02</internalNodes>
      <leafValues>
        -7.6374657452106476e-02 3.8594779372215271e-01</leafValues></_>
    <_>
      <internalNodes>
        0 -1 1756 -2.2932302206754684e-02</internalNodes>
      <leafValues>
        -6.0609638690948486e-01 4.9398884177207947e-02</leafValues></_>
    <_>
      <internalNodes>
        0 -1 68210 -1.7584664747118950e-02</internalNodes>
      <leafValues>
        5.2671712636947632e-01 -5.1563050597906113e-02</leafValues></_>
    <_>
      <internalNodes>
        0 -1 11884 -1.4898231020197272e-03</internalNodes>
      <leafValues>
        -4.1026040911674500e-01 6.6280320286750793e-02</leafValues></_>
    <_>
      <internalNodes>
        0 -1 124743 1.1389257386326790e-02</internalNodes>
      <leafValues>
        -5.9229094535112381e-02 4.0201738476753235e-01</leafValues></_>
    <_>
      <internalNodes>
        0 -1 963 -3.6092191934585571e-01</internalNodes>
      <leafValues>
        -6.9791793823242188e-01 3.4494478255510330e-02</leafValues></_>
    <_>
      <internalNodes>
        0 -1 89905 -1.8822029232978821e-03</internalNodes>
      <leafValues>
        -3.4964698553085327e-01 5.8879341930150986e-02</leafValues></_>
    <_>
      <internalNodes>
        0 -1 103218 -1.0324422270059586e-02</internalNodes>
      <leafValues>
        6.0947990417480469e-01 -3.5320099443197250e-02</leafValues></_>
    <_>
      <internalNodes>
        0 -1 121897 -8.1805413356050849e-04</internalNodes>
      <leafValues>
        -2.6532134413719177e-01 8.0751612782478333e-02</leafValues></_>
    <_>
      <internalNodes>
        0 -1 128511 2.4235241115093231e-01</internalNodes>
      <leafValues>
        3.6596644669771194e-02 -5.0735425949096680e-01</leafValues></_>
    <_>
      <internalNodes>
        0 -1 13351 -5.3790077567100525e-02</internalNodes>
      <leafValues>
        -6.4333415031433105e-01 3.2183982431888580e-02</leafValues></_>
    <_>
      <internalNodes>
        0 -1 78401 -4.1632860898971558e-02</internalNodes>
      <leafValues>
        3.9496850967407227e-01 -5.6970365345478058e-02</leafValues></_>
    <_>
      <internalNodes>
        0 -1 13934 2.8345203399658203e-01</internalNodes>
      <leafValues>
        3.1540837138891220e-02 -6.7334377765655518e-01</leafValues></_>
    <_>
      <internalNodes>
        0 -1 144005 -8.9757191017270088e-04</internalNodes>
      <leafValues>
        -2.8775888681411743e-01 6.7736305296421051e-02</leafValues></_>
    <_>
      <internalNodes>
        0 -1 89098 -2.6872459799051285e-02</internalNodes>
      <leafValues>
        7.0271122455596924e-01 -2.8905229642987251e-02</leafValues></_>
    <_>
      <internalNodes>
        0 -1 1402 8.2453647628426552e-03</internalNodes>
      <leafValues>
        -1.3986182212829590e-01 1.3463045656681061e-01</leafValues></_>
    <_>
      <internalNodes>
        0 -1 138131 -1.8097706139087677e-02</internalNodes>
      <leafValues>
        4.6465492248535156e-01 -4.2826261371374130e-02</leafValues></_>
    <_>
      <internalNodes>
        0 -1 161529 -7.5575232040137053e-04</internalNodes>
      <leafValues>
        -2.3898096382617950e-01 8.0951921641826630e-02</leafValues></_>
    <_>
      <internalNodes>
        0 -1 139726 -1.8542947247624397e-02</internalNodes>
      <leafValues>
        5.2336359024047852e-01 -3.8296729326248169e-02</leafValues></_>
    <_>
      <internalNodes>
        0 -1 47169 -3.8375716656446457e-02</internalNodes>
      <leafValues>
        4.7200620174407959e-01 -3.6137882620096207e-02</leafValues></_>
    <_>
      <internalNodes>
        0 -1 151177 -1.1865194886922836e-02</internalNodes>
      <leafValues>
        4.1014510393142700e-01 -4.3126355856657028e-02</leafValues></_>
    <_>
      <internalNodes>
        0 -1 145920 1.4009378850460052e-02</internalNodes>
      <leafValues>
        -4.3907590210437775e-02 3.8072288036346436e-01</leafValues></_>
    <_>
      <internalNodes>
        0 -1 139184 -7.0730703882873058e-03</internalNodes>
      <leafValues>
        -3.9734685420989990e-01 4.8394687473773956e-02</leafValues></_>
    <_>
      <internalNodes>
        0 -1 150724 1.5937302261590958e-02</internalNodes>
      <leafValues>
        -4.1327510029077530e-02 4.2959102988243103e-01</leafValues></_>
    <_>
      <internalNodes>
        0 -1 91309 -1.1452434584498405e-02</internalNodes>
      <leafValues>
        5.9879034757614136e-01 -2.6152221485972404e-02</leafValues></_>
    <_>
      <internalNodes>
        0 -1 112889 -3.7364859133958817e-02</internalNodes>
      <leafValues>
        8.1735837459564209e-01 -1.6449591144919395e-02</leafValues></_>
    <_>
      <internalNodes>
        0 -1 55371 -3.4960478544235229e-01</internalNodes>
      <leafValues>
        -6.0078316926956177e-01 3.1212417408823967e-02</leafValues></_>
    <_>
      <internalNodes>
        0 -1 140565 -4.4929173588752747e-01</internalNodes>
      <leafValues>
        -3.9053287357091904e-02 6.1483758687973022e-01</leafValues></_>
    <_>
      <internalNodes>
        0 -1 117989 -1.5360523760318756e-01</internalNodes>
      <leafValues>
        1.2000015377998352e-01 -1.8431347608566284e-01</leafValues></_>
    <_>
      <internalNodes>
        0 -1 96549 -3.2164707779884338e-01</internalNodes>
      <leafValues>
        -6.9387650489807129e-01 3.4198913723230362e-02</leafValues></_>
    <_>
      <internalNodes>
        0 -1 55819 5.8991700410842896e-02</internalNodes>
      <leafValues>
        -3.0807623639702797e-02 7.0815014839172363e-01</leafValues></_>
    <_>
      <internalNodes>
        0 -1 78325 2.8622061014175415e-02</internalNodes>
      <leafValues>
        -4.0869284421205521e-02 3.9855119585990906e-01</leafValues></_>
    <_>
      <internalNodes>
        0 -1 162045 7.2171905776485801e-04</internalNodes>
      <leafValues>
        7.5273491442203522e-02 -2.3598638176918030e-01</leafValues></_>
    <_>
      <internalNodes>
        0 -1 123062 1.5324233099818230e-02</internalNodes>
      <leafValues>
        -4.6892676502466202e-02 3.7162217497825623e-01</leafValues></_>
    <_>
      <internalNodes>
        0 -1 77378 1.0052348487079144e-02</internalNodes>
      <leafValues>
        -4.3940167874097824e-02 3.6967185139656067e-01</leafValues></_>
    <_>
      <internalNodes>
        0 -1 157059 -2.0325148478150368e-02</internalNodes>
      <leafValues>
        5.7946318387985229e-01 -2.6385057717561722e-02</leafValues></_>
    <_>
      <internalNodes>
        0 -1 156927 -8.2957893610000610e-03</internalNodes>
      <leafValues>
        5.3756099939346313e-01 -2.6906525716185570e-02</leafValues></_>
    <_>
      <internalNodes>
        0 -1 20264 7.4350839713588357e-04</internalNodes>
      <leafValues>
        6.9744966924190521e-02 -2.4272543191909790e-01</leafValues></_>
    <_>
      <internalNodes>
        0 -1 51305 1.6404714435338974e-02</internalNodes>
      <leafValues>
        -2.9522137716412544e-02 6.1714828014373779e-01</leafValues></_>
    <_>
      <internalNodes>
        0 -1 153203 -9.6790120005607605e-03</internalNodes>
      <leafValues>
        3.5596814751625061e-01 -4.3052896857261658e-02</leafValues></_>
    <_>
      <internalNodes>
        0 -1 121720 1.2052824720740318e-02</internalNodes>
      <leafValues>
        4.1442647576332092e-02 -4.3350526690483093e-01</leafValues></_>
    <_>
      <internalNodes>
        0 -1 138326 2.4431005120277405e-02</internalNodes>
      <leafValues>
        -3.2849185168743134e-02 5.3735417127609253e-01</leafValues></_>
    <_>
      <internalNodes>
        0 -1 108240 3.3676382154226303e-02</internalNodes>
      <leafValues>
        -2.4265607818961143e-02 6.0798919200897217e-01</leafValues></_>
    <_>
      <internalNodes>
        0 -1 160179 7.4737897375598550e-04</internalNodes>
      <leafValues>
        7.3294155299663544e-02 -2.3724791407585144e-01</leafValues></_>
    <_>
      <internalNodes>
        0 -1 138797 -2.2468309849500656e-02</internalNodes>
      <leafValues>
        8.0335551500320435e-01 -2.1893883123993874e-02</leafValues></_>
    <_>
      <internalNodes>
        0 -1 162001 7.2256801649928093e-04</internalNodes>
      <leafValues>
        7.6869510114192963e-02 -2.1864491701126099e-01</leafValues></_>
    <_>
      <internalNodes>
        0 -1 149173 -5.1246830262243748e-03</internalNodes>
      <leafValues>
        2.4023251235485077e-01 -6.7365370690822601e-02</leafValues></_>
    <_>
      <internalNodes>
        0 -1 74535 -1.2172263115644455e-02</internalNodes>
      <leafValues>
        3.2807183265686035e-01 -4.7871649265289307e-02</leafValues></_>
    <_>
      <internalNodes>
        0 -1 157732 -5.1069399341940880e-03</internalNodes>
      <leafValues>
        1.4143937826156616e-01 -1.1082834005355835e-01</leafValues></_>
    <_>
      <internalNodes>
        0 -1 3136 5.9743656311184168e-04</internalNodes>
      <leafValues>
        7.3003530502319336e-02 -2.1692818403244019e-01</leafValues></_>
    <_>
      <internalNodes>
        0 -1 3136 -6.2512658769264817e-04</internalNodes>
      <leafValues>
        -2.2008696198463440e-01 8.6063079535961151e-02</leafValues></_>
    <_>
      <internalNodes>
        0 -1 87210 -2.1738857030868530e-02</internalNodes>
      <leafValues>
        5.5634039640426636e-01 -3.0602959915995598e-02</leafValues></_>
    <_>
      <internalNodes>
        0 -1 4123 2.6504704728722572e-02</internalNodes>
      <leafValues>
        2.9000481590628624e-02 -5.9288120269775391e-01</leafValues></_>
    <_>
      <internalNodes>
        0 -1 157775 -7.5892508029937744e-02</internalNodes>
      <leafValues>
        -3.6684727668762207e-01 4.1238140314817429e-02</leafValues></_>
    <_>
      <internalNodes>
        0 -1 5290 -1.1556535959243774e-01</internalNodes>
      <leafValues>
        -4.8162052035331726e-01 3.1445238739252090e-02</leafValues></_>
    <_>
      <internalNodes>
        0 -1 30899 -2.0991506054997444e-02</internalNodes>
      <leafValues>
        -3.2385388016700745e-01 4.8600409179925919e-02</leafValues></_></weakClassifiers></stage2>
</opencv_storage>
